{
  "meta": {
    "source": "lalamo",
    "model": "deterministic_random_init_seed_7"
  },
  "tts_config": {
    "audio_codec": {
      "type": "nanocodec_fsq",
      "sample_rate": 24000,
      "num_groups": 2,
      "num_levels_per_group": [
        8,
        6
      ],
      "output_packing": "codebook_major",
      "decoder": {
        "pre_conv": {
          "weight": {
            "shape": [
              4,
              4,
              3
            ],
            "values": [
              -0.6902866959571838,
              0.8894745707511902,
              0.762456476688385,
              0.6868754625320435,
              -0.10170280188322067,
              -1.8363655805587769,
              -0.013726945035159588,
              0.28286072611808777,
              0.15542837977409363,
              0.9867391586303711,
              -0.8113496899604797,
              -0.4282465875148773,
              1.0326569080352783,
              -0.9516605734825134,
              -0.007612867280840874,
              -0.4290013015270233,
              1.2892296314239502,
              -0.5925350189208984,
              -0.6613150835037231,
              0.08580971509218216,
              -1.0662997961044312,
              -0.384723424911499,
              1.5162320137023926,
              -1.7604244947433472,
              -0.3489350378513336,
              1.8044867515563965,
              -0.2968864440917969,
              0.41130781173706055,
              0.287489116191864,
              -0.848282516002655,
              -0.6596370935440063,
              1.028062343597412,
              0.012412801384925842,
              0.07750912010669708,
              -2.2379143238067627,
              1.2863019704818726,
              0.45216166973114014,
              0.9240090250968933,
              0.10757531970739365,
              -0.9066662192344666,
              -2.3919999599456787,
              1.4197382926940918,
              0.23411825299263,
              0.8544045090675354,
              0.09358680248260498,
              -1.1753251552581787,
              -0.6702502965927124,
              0.5080838203430176
            ]
          },
          "bias": [
            0.0,
            0.0,
            0.0,
            0.0
          ],
          "dilation": 1
        },
        "stages": [
          {
            "activation_alpha": [
              1.0,
              1.0
            ],
            "upsample_conv": {
              "weight": {
                "shape": [
                  4,
                  1,
                  4
                ],
                "values": [
                  1.0672671794891357,
                  1.2619507312774658,
                  -0.558529257774353,
                  -1.1541413068771362,
                  -1.1767535209655762,
                  0.8772202134132385,
                  -0.5892289280891418,
                  0.3462167978286743,
                  0.5000971555709839,
                  -0.8463050723075867,
                  0.3999463617801666,
                  -1.3290680646896362,
                  1.2637614011764526,
                  2.5122764110565186,
                  -0.6724514365196228,
                  -1.6412512063980103
                ]
              },
              "bias": [
                0.0,
                0.0
              ],
              "stride": 2,
              "groups": 2
            },
            "res_layer": {
              "res_blocks": [
                {
                  "res_blocks": [
                    {
                      "input_activation_alpha": [
                        1.0
                      ],
                      "input_conv": {
                        "weight": {
                          "shape": [
                            2,
                            2,
                            3
                          ],
                          "values": [
                            0.29141244292259216,
                            -0.8774597644805908,
                            0.782881498336792,
                            -0.1398864984512329,
                            0.14341199398040771,
                            -0.8812742233276367,
                            0.8447621464729309,
                            -0.5404879450798035,
                            0.15081501007080078,
                            -1.7407516241073608,
                            0.016501296311616898,
                            -1.2222907543182373
                          ]
                        },
                        "bias": [
                          0.0,
                          0.0
                        ],
                        "dilation": 1
                      },
                      "skip_activation_alpha": [
                        1.0
                      ],
                      "skip_conv": {
                        "weight": {
                          "shape": [
                            2,
                            2,
                            3
                          ],
                          "values": [
                            1.2374061346054077,
                            -0.33920615911483765,
                            0.5293110013008118,
                            -0.12058302015066147,
                            -0.3655224144458771,
                            -0.7204506993293762,
                            -0.3541078567504883,
                            -0.5784883499145508,
                            -0.46465829014778137,
                            -0.511485755443573,
                            0.7054634690284729,
                            -0.21442608535289764
                          ]
                        },
                        "bias": [
                          0.0,
                          0.0
                        ],
                        "dilation": 1
                      }
                    },
                    {
                      "input_activation_alpha": [
                        1.0
                      ],
                      "input_conv": {
                        "weight": {
                          "shape": [
                            2,
                            2,
                            3
                          ],
                          "values": [
                            -3.567390203475952,
                            -0.32428303360939026,
                            -0.4638825058937073,
                            -0.3717006742954254,
                            -1.293632984161377,
                            -1.4861632585525513,
                            0.5482575297355652,
                            -1.2471518516540527,
                            0.5503079891204834,
                            -1.5123388767242432,
                            0.19605056941509247,
                            -1.0246411561965942
                          ]
                        },
                        "bias": [
                          0.0,
                          0.0
                        ],
                        "dilation": 2
                      },
                      "skip_activation_alpha": [
                        1.0
                      ],
                      "skip_conv": {
                        "weight": {
                          "shape": [
                            2,
                            2,
                            3
                          ],
                          "values": [
                            -1.4127283096313477,
                            0.2429395318031311,
                            0.42776697874069214,
                            0.3245713710784912,
                            0.5119603872299194,
                            0.14629575610160828,
                            -0.10174243897199631,
                            1.528679609298706,
                            -0.29479140043258667,
                            0.35013648867607117,
                            -1.2088247537612915,
                            -3.1774728298187256
                          ]
                        },
                        "bias": [
                          0.0,
                          0.0
                        ],
                        "dilation": 1
                      }
                    }
                  ]
                }
              ]
            }
          }
        ],
        "post_activation_alpha": [
          1.0
        ],
        "post_conv": {
          "weight": {
            "shape": [
              1,
              2,
              3
            ],
            "values": [
              1.2764595746994019,
              -0.6234888434410095,
              -0.9518707990646362,
              -1.5730624198913574,
              1.609964370727539,
              -0.4337523579597473
            ]
          },
          "bias": [
            0.0
          ],
          "dilation": 1
        },
        "negative_slope": 0.01,
        "eps": 1e-09
      }
    }
  },
  "tokens": {
    "batch_size": 2,
    "codebooks": 2,
    "frames": 4,
    "lengths": [
      4,
      4
    ],
    "packing": "codebook_major",
    "tokens": [
      3,
      10,
      17,
      24,
      31,
      38,
      45,
      5,
      12,
      19,
      26,
      33,
      40,
      0,
      7,
      14
    ]
  },
  "expected": {
    "latent_nct": {
      "shape": [
        2,
        4,
        4
      ],
      "values": [
        -0.25,
        -0.5,
        -0.75,
        -1.0,
        -1.0,
        -0.6666666865348816,
        -0.3333333432674408,
        0.0,
        0.75,
        0.5,
        0.25,
        0.25,
        0.0,
        0.3333333432674408,
        0.6666666865348816,
        -1.0,
        0.0,
        -0.25,
        -0.5,
        -0.75,
        -0.6666666865348816,
        -0.3333333432674408,
        0.0,
        0.3333333432674408,
        -1.0,
        -1.0,
        0.75,
        0.5,
        0.6666666865348816,
        -1.0,
        -1.0,
        -0.6666666865348816
      ]
    },
    "pcm": {
      "sample_rate": 24000,
      "channels": 1,
      "lengths": [
        8,
        8
      ],
      "samples": [
        0.9955917000770569,
        -0.5181193947792053,
        0.9999412298202515,
        -1.0,
        -1.0,
        -1.0,
        1.0,
        0.9936552047729492,
        0.3604249060153961,
        -0.10971660912036896,
        -0.9199704527854919,
        -0.9975354075431824,
        -0.8723444938659668,
        0.9997377991676331,
        1.0,
        -0.9999980330467224
      ]
    }
  }
}